encog,BasicNetwork,java,3.2.0,1,1433116202843
[BASIC]
[BASIC:PARAMS]
[BASIC:NETWORK]
beginTraining=0
connectionLimit=0
contextTargetOffset=0,0,0
contextTargetSize=0,0,0
endTraining=2
hasContext=f
inputCount=13
layerCounts=2,7,14
layerFeedCounts=2,6,13
layerContextCount=0,0,0
layerIndex=0,2,9
output=0.8091325151,0.1696705957,0,0.2208246095,0.6595510948,0,0.9337018836,0.1076328649,1,1,1,0,0,1,0,0,1,1,0,1,0,1,1
outputCount=2
weightIndex=0,14,98
weights=-1.3508189394,0.2737689183,-0.9328571741,4.8999861116,1.9281230402,-1.8431758913,0.397289557,1.2658497853,0.5099293185,-0.8366236918,-4.7970241605,-2.0683269548,1.6937993718,0.6001198143,-0.2557918764,-0.0649927371,0.4121435478,-1.6018344419,-34.7113624631,0.9244486876,-0.7194196532,1.5226926463,-0.2234136574,-0.0428903502,-0.2077700285,0.9675294328,0.7970749893,0.2777096645,0.2774018189,-0.1898559912,0.0572273222,-0.6230372806,-1.8213569027,-0.545546254,1.7628538371,0.3290108429,-0.7498039274,-2.0887339445,0.2871476921,0.6202190075,0.0349306247,0.5716584379,0.3271615355,-0.4983168311,-0.0750281493,0.2777088865,-0.4161766091,-0.2995703233,1.5877171096,-0.2442324583,0.4247093982,-1.0933052573,-0.4034546872,-0.3883786382,0.6652935581,0.806310482,-0.1966576441,-0.7251274575,-0.9326926196,-3.0044874206,-35.5580722076,-0.8586927717,0.685077939,-16.6457005149,-16.1317153754,0.2439558427,0.4789945761,-0.2057598092,-0.0791406337,1.1619504737,0.6921750203,0.6755470202,2.0452391777,0.9684843137,3.4458193124,-0.4031175062,-60.2477243924,0.5424898569,-0.5168573174,0.1011942174,-0.6939327318,-0.4287247065,-1.2644285516,-0.2358168904,0.47328747,-0.5843422641,-0.1051437252,-3.6673996657,-1.6299985578,0.2724904719,1.35486638,-1.8291679491,-0.2297120659,0.1174273843,1.0313267984,0.3161530852,0.8134642091,-0.1600092385
biasActivation=0,1,1
[BASIC:ACTIVATION]
"org.encog.engine.network.activation.ActivationSigmoid"
"org.encog.engine.network.activation.ActivationSigmoid"
"org.encog.engine.network.activation.ActivationLinear"
