encog,BasicNetwork,java,3.2.0,1,1433103619489
[BASIC]
[BASIC:PARAMS]
[BASIC:NETWORK]
beginTraining=0
connectionLimit=0
contextTargetOffset=0,0,0
contextTargetSize=0,0,0
endTraining=2
hasContext=f
inputCount=9
layerCounts=7,8,10
layerFeedCounts=7,7,9
layerContextCount=0,0,0
layerIndex=0,7,15
output=0.9152348315,0.9026467428,0.6510357267,0.4496053545,0.3331651744,0.1847829162,0.0854450786,0,1,1,0,1,0.6580216779,0.3261893381,1,0,1,0,0,1,0,0,1,1,1
outputCount=7
weightIndex=0,56,126
weights=0.2258214114,0.4761067146,2.98736645,-3.4694240263,0.4187292074,-1.1580335668,-3.3461153537,0.3505719407,-0.3284011244,1.8157115219,0.1867215483,2.9455459827,0.2418143549,2.8488384105,-4.7276424763,-0.3497532028,3.22888327,1.7576879008,-2.0590249036,0.9046339541,-1.1841241636,3.6496947288,-1.4482599474,0.1798848433,5.2266045678,3.4412758377,-0.3708185219,-0.2258292877,-2.6954969611,-0.3359002411,3.0996706939,-1.3672755969,1.5743663851,2.4842968178,-3.2394894328,3.1924124024,-0.1579054787,1.2275260915,1.3221673477,-1.0198215678,-0.1474081969,0.3748880823,-3.693698375,2.9527857332,0.1963275677,1.9041816531,1.5112565768,-0.1077385923,-1.881827007,-1.3140726479,-3.5650270558,3.5159164372,-0.0185976173,2.5184342865,1.7822719615,0.2885911468,6.5962424056,-0.6274787511,-3.1401222007,-16.2854407244,-45.0554347329,0.2724904719,6.4322038175,-18.464891312,-19.1351341568,1.6167081169,1.2731129808,1.8742468499,4.4609919258,29.4140249602,32.0423199629,-0.4705146582,-61.0552618096,-0.2349517245,-1.1199156213,-3.2142207391,-1.5237345298,-2.2487146371,-5.3633006275,56.3146936459,43.1752228869,-0.5104002663,2.7314905882,-1.366400712,-0.5294114603,3.0434163597,-0.2218257229,-0.5059123264,-0.6965540259,-0.7996968663,-31.9935461911,0.990366295,0.6598493106,-1.242487614,-0.3871552844,1.1089060893,0.4158436472,-0.4047885774,1.1557635089,-0.7909110324,27.2880462881,0.1307926087,0.0426196805,0.5435306145,-0.4182250549,0.717968328,-0.7083313493,-1.0194895364,-2.2953428252,5.5413202881,1.5398176095,-0.6038933149,-0.9208530702,-0.1555184196,0.9059523532,-0.6162714803,-0.4435726782,-0.7500117579,-1.7602505734,0.0992275348,-2.6332386942,0.5947978845,0.7421582215,1.5420307574,1.2340062815,-0.1182577366
biasActivation=0,1,1
[BASIC:ACTIVATION]
"org.encog.engine.network.activation.ActivationSigmoid"
"org.encog.engine.network.activation.ActivationSigmoid"
"org.encog.engine.network.activation.ActivationLinear"
