encog,BasicNetwork,java,3.2.0,1,1433116630996
[BASIC]
[BASIC:PARAMS]
[BASIC:NETWORK]
beginTraining=0
connectionLimit=0
contextTargetOffset=0,0,0
contextTargetSize=0,0,0
endTraining=2
hasContext=f
inputCount=13
layerCounts=2,8,14
layerFeedCounts=2,7,13
layerContextCount=0,0,0
layerIndex=0,2,10
output=0.8106456477,0.1752441955,0,1,1,0,1,0,0,1,1,1,0,0,1,0,0,1,1,0,1,1,0,1
outputCount=2
weightIndex=0,16,114
weights=-2.1174001446,1.2450353566,0.9417182458,2.6399668024,0.0911231052,0.6128130103,5.1308647509,-0.8236658213,2.1444533103,-1.2979935085,-0.9092577465,-3.3694018055,1.0297383831,-0.6623949118,-1.7287131943,-0.3713940723,-0.0164834947,-0.9282897866,-1.5790542483,-2.3676793572,-30.8904780493,0.2724904719,60.6499457427,1.2524633232,0.5822204784,0.1407092458,-0.0220682698,0.3091033179,0.5955864535,0.0445329959,1.5225302657,0.6176126624,0.972244169,2.864867376,34.5774019004,-0.4705146582,0.2096051564,-2.4979300674,-3.3828939642,-0.3928243083,0.1029413027,0.0789578334,0.7100131879,0.1253879598,-1.2781617691,-0.457874422,0.2577117589,0.6346305106,-28.1123042837,-0.5104002663,-0.6872269973,29.5689180527,30.4059073043,0.9845650583,0.9167333375,0.1817394545,0.5467094703,-0.812418798,0.3698686911,-0.5840468738,-0.9529812888,-1.8640760391,-31.9935461911,0.990366295,-0.1999661315,-17.4081950748,-16.5528627452,0.9675294328,0.5523289548,0.2073244639,0.7145624742,0.5613850149,0.9146090287,-0.2680955638,0.1162941439,-0.8763797374,27.3219016224,0.1307926087,0.1969116803,13.841117306,12.8793616366,0.6202190075,0.5390544301,1.5182434303,-0.636189816,0.9292895529,-0.2871722683,0.3256673648,-0.2494969488,-0.96416188,-28.2617647173,-0.6038933149,-0.6090284332,-15.2243091379,-14.162838365,-0.3883786382,-0.5050769315,-0.4552885153,-0.7292812643,0.5938103358,-0.5812942876,-0.2614253999,-1.018833998,-1.2045142021,-29.2995824994,0.5947978845,0.0860418852,-15.804655558,-16.1126800339,-0.2057598092,-0.9610745542,-0.738464525,0.8888844903,0.772548549
biasActivation=0,1,1
[BASIC:ACTIVATION]
"org.encog.engine.network.activation.ActivationSigmoid"
"org.encog.engine.network.activation.ActivationSigmoid"
"org.encog.engine.network.activation.ActivationLinear"
