encog,BasicNetwork,java,3.2.0,1,1433081725197
[BASIC]
[BASIC:PARAMS]
[BASIC:NETWORK]
beginTraining=0
connectionLimit=0
contextTargetOffset=0,0,0
contextTargetSize=0,0,0
endTraining=2
hasContext=f
inputCount=9
layerCounts=8,11,10
layerFeedCounts=8,10,9
layerContextCount=0,0,0
layerIndex=0,8,19
output=0.016556132,0.0218118972,0.0973271501,0.4255540764,0.0291407105,0.8253222292,0.7374568513,0.6974149886,0.0000000001,1,0.7237326761,0.9999954811,0,0.949486747,0.0000591262,0,1,0,1,0,0,1,0,1,0,1,0,0,1
outputCount=8
weightIndex=0,88,188
weights=-1.9432425329,-7.9270145318,1.9530105352,-2.5566787205,3.8532078845,1.8571250685,-0.3520468136,-0.7652275107,3.5560296963,1.2318002291,-0.3334043777,-2.2015157178,-5.2191105936,3.5515477154,-3.2514668749,-2.0903781158,2.6611681704,2.567145619,5.373049027,0.417984717,3.5156294785,-0.8479351908,3.9587483002,-1.5068910818,-0.5587778905,-0.1868607052,0.1142181304,-2.5292881763,-8.9436275025,-0.4333108691,2.2294271548,-0.0572078284,0.0435018002,0.8065052708,-0.5144168679,-3.3519331889,3.3869360072,2.9536746859,-1.7694881364,0.9619101031,-0.5276526128,0.1384995287,-0.1105445911,0.7949349383,-2.1879557999,-5.1188005802,-0.6139144134,3.3407727862,4.4487171844,0.2473446544,1.7155947095,3.204412857,-0.8112365912,-0.8054332223,-0.7074078677,2.5256321029,9.8543281268,0.8612011565,-1.6710546883,-2.1456541731,-6.676818693,-1.4425287851,1.4502299158,-1.9922515596,-13.964042646,1.0781582286,6.1462487618,-0.9688719643,0.5583454818,0.9080129296,0.6523885212,-0.204620556,-2.3892276651,-2.0737858365,0.8096089658,-19.7811243573,0.0743792092,3.8389956429,6.6657555551,-2.5573765552,1.4002739516,2.6712819013,-4.9712944009,-1.3174644225,-5.3795683614,-0.5906911496,-3.3293699548,-0.0692006471,-4.1683637495,-2.6439431029,-28.4681497013,61.7646085667,4.3361001007,0.3314024451,0.7053725203,-0.8858588555,0.0992405563,0.1184678633,0.6662682872,-33.0325384175,-31.6835923351,-35.0860818459,57.6011977712,0.0078679251,0.3295858821,2.3229317019,2.8304437601,-0.197584915,-0.8964332057,-3.3875801089,2.7266485584,-0.3390202025,-0.3072426858,-0.9604713428,-1.3225096639,1.0908770763,0.2601996255,-0.1338430781,0.3134600172,-8.8910237996,42.568004522,11.1427628915,-27.296546504,0.8528796355,-0.2954729464,0.1529470857,-0.300001765,-2.6687420772,-0.2347164221,-4.83301422,-31.321887585,0.5240395646,0.4114043105,-0.5630758334,-1.1528912477,0.5476017231,0.7278303951,0.2857557132,-0.5945011338,-1.6366462071,-0.6850527134,-30.7315407267,1.1215049817,-0.3453659879,1.7813712254,-0.5661115332,0.5613276186,0.7158623413,0.0904818037,-1.1781316451,-3.046681293,-1.1820052018,-8.3955297235,-0.9624976939,1.2163235924,-1.3008002738,0.2092293247,0.490109328,0.1209836185,-0.6871553029,-1.746718377,-0.9814729933,-30.1228563081,-0.5535614517,0.9013199238,0.6628392597,0.610699265,0.7699621935,6.7892204763,-7.107889949,34.3765361671,27.0591205011,-8.2889390544,0.8448571767,0.025573106,6.1038330443,5.0910395692,1.3197623613,-0.0373282565,-1.3699365395,-1.6611589901,-0.9605664827,-29.0779214581,-0.1051390132,-0.0469420777,0.925339128,-0.5868478215,0.0208498036
biasActivation=0,1,1
[BASIC:ACTIVATION]
"org.encog.engine.network.activation.ActivationSigmoid"
"org.encog.engine.network.activation.ActivationSigmoid"
"org.encog.engine.network.activation.ActivationLinear"
