encog,BasicNetwork,java,3.2.0,1,1431123006569
[BASIC]
[BASIC:PARAMS]
[BASIC:NETWORK]
beginTraining=0
connectionLimit=0
contextTargetOffset=0,0,0
contextTargetSize=0,0,0
endTraining=2
hasContext=f
inputCount=9
layerCounts=8,4,10
layerFeedCounts=8,3,9
layerContextCount=0,0,0
layerIndex=0,8,12
output=0.4999999405,0.4999995895,0.5000013437,0.4857695266,0.5349772857,0.5000030673,0.4999991091,0.5313052134,0.4118860038,0.0000881955,0,1,0,0,1,1,0,0,1,0,0,1
outputCount=8
weightIndex=0,32,62
weights=0.0023671844,0.000054948,-0.000146041,-0.0009752531,-0.0001221848,0.0000119329,0.000010125,0.000048683,0.0006659538,-0.0000316407,-0.0000416854,-0.0002689193,-0.2164920508,14.89161193,0.0665336804,0.0309194022,-7.5597288378,-0.6496218676,0.1638211135,3.2539418316,0.0003538962,-0.000027831,-0.0000256374,-0.0001334933,-0.0001531359,0.000013431,0.0000109462,0.0000595099,-8.4959124327,-0.6874544596,14.619951826,3.6247929155,-1.6813969928,-0.7049186636,-0.7618370285,-0.857524557,-0.8901664936,0.6611881428,-0.0948866217,-0.7798219257,-0.0687690047,1.3580740284,-3.5508634878,-3.3866478468,-3.3014246013,-4.8619481598,-0.8353259384,0.9231194919,0.1581357199,0.4982337578,4.0908086901,-1.3306294619,-30.3371447224,10.0515196696,-38.655700801,9.3354737034,-11.6724564706,-0.2482875276,-0.645284708,0.9169006035,-25.9975567634,0.9587795878
biasActivation=0,1,1
[BASIC:ACTIVATION]
"org.encog.engine.network.activation.ActivationSigmoid"
"org.encog.engine.network.activation.ActivationSigmoid"
"org.encog.engine.network.activation.ActivationLinear"
