encog,BasicNetwork,java,3.2.0,1,1431123002307
[BASIC]
[BASIC:PARAMS]
[BASIC:NETWORK]
beginTraining=0
connectionLimit=0
contextTargetOffset=0,0,0
contextTargetSize=0,0,0
endTraining=2
hasContext=f
inputCount=9
layerCounts=4,9,10
layerFeedCounts=4,8,9
layerContextCount=0,0,0
layerIndex=0,4,13
output=0.5428143276,0.5160077688,0.5418439744,0.5365626207,1,0,0.3304496201,0.6151987154,0.2843254231,0.615464007,0.694189584,0.1118788324,1,1,1,0,0,1,0,0,0,0,1
outputCount=4
weightIndex=0,36,116
weights=0.4986661172,0.7110872326,-2.0096348566,1.896381652,-2.1313397727,1.027656614,0.1611753434,-0.5315658893,-0.9084637172,1.2427322473,1.8180428338,0.0224300383,-2.9060336846,1.5899167447,-0.906594455,-1.0103933858,15.0719584738,-0.2772091365,-0.2196818414,0.2421380255,-2.699268529,0.4779682277,-1.2730679781,1.4573681667,1.2740099066,-0.278600021,-0.4028500637,-1.5052095419,0.3138030043,0.1861581936,1.6103597202,-1.930307457,-0.2941812006,1.2237608779,-2.4982298716,0.7593848218,-3.0715336581,4.5519713068,29.3972842522,78.1396260777,28.39529467,-0.6038933149,-49.8511588904,-0.9624976939,23.9174664407,0.9247205521,-1.4824034513,-1.332998026,0.8748917328,-0.0950193011,-29.481072053,0.5947978845,0.4887335258,-0.5535614517,-26.6052194892,0.3177511631,0.0473796608,-0.1401464874,-0.6987048035,-0.4623613863,-0.5879111407,0.8136436622,-9.6258222007,0.8448571767,7.1014962572,-0.0254742327,0.4731424057,0.1950944578,-2.6191051793,-1.5820509069,-0.2860554122,0.7865599212,1.9543626776,-0.1051390132,-1.3665618197,0.0870368215,-0.4872141052,0.2375493403,-0.0319341762,-0.0824990934,0.5733278473,-0.3375394115,-56.2082643851,-0.1088760339,27.8222755079,-1.2467692063,-0.0046856944,0.4722262169,-0.6379357039,0.9308104545,-0.5509035342,-0.5061172143,-2.4350274326,0.4983949395,-26.3290930901,0.5537020835,-0.104075089,-0.0825872613,1.7631009954,0.3335408272,0.7548083156,0.0988758316,-29.2579408266,-0.6533904638,-29.2143913155,0.2516337792,0.8592088317,-0.0314326701,-27.9729827156,-1.5153448046,-0.2446315595,-0.7465762477,-83.5670555515,0.1407092458,54.6059733978,-2.6548363537
biasActivation=0,1,1
[BASIC:ACTIVATION]
"org.encog.engine.network.activation.ActivationSigmoid"
"org.encog.engine.network.activation.ActivationSigmoid"
"org.encog.engine.network.activation.ActivationLinear"
