encog,BasicNetwork,java,3.2.0,1,1433602066070
[BASIC]
[BASIC:PARAMS]
[BASIC:NETWORK]
beginTraining=0
connectionLimit=0
contextTargetOffset=0,0,0
contextTargetSize=0,0,0
endTraining=2
hasContext=f
inputCount=9
layerCounts=7,6,10
layerFeedCounts=7,5,9
layerContextCount=0,0,0
layerIndex=0,7,13
output=0.471474393,0.3091048446,0.5291262305,0.8000943532,0.1679917437,0.4645927403,0.5229176491,0.9280037464,0,0.0716351154,0.6076753911,0.0004680165,1,0,1,1,0,0,0,1,0,1,1
outputCount=7
weightIndex=0,42,92
weights=-0.722281545,-1.3136019134,-0.2807914659,0.8498015529,-0.0467880737,0.0597864499,-1.7162166865,-1.1893228607,3.3336149887,0.7297544465,0.4866561563,0.105862477,-1.031958564,-1.3648125825,-0.9068578756,0.9657120494,0.4467200106,0.5522127341,1.1523933908,-3.3465405448,0.3669720276,1.4297448167,-0.3511195704,-0.5774857053,-0.0715209701,5.409382619,-0.0576518029,-2.461875663,3.5279265786,-0.0350557804,-0.1102965355,-0.94304017,-0.7684040391,-2.479615457,-0.6266136516,1.5226283722,-0.3525463928,-1.5165735288,-0.5930070094,0.6888150581,-0.1101410284,0.0428549606,-0.1373139993,-0.4981227835,-0.4964665276,0.6503061872,-27.9983566537,0.4204123741,1.2688588039,0.2724904719,2.4438592906,-0.161707098,-1.9536979012,1.1754428766,-40.2875631479,-9.9085660663,-3.8804473773,-0.4033499009,-0.4472613796,-0.4705146582,8.5398214686,0.1971607061,1.3459715481,-0.320909255,-1.5773001297,-0.11418199,5.9442308923,-0.9152722768,-0.640836428,-0.5104002663,1.0650487076,-1.0878423524,0.3929387127,-0.8551847804,0.4487643695,3.1627597824,1.5228861389,-0.8282348211,-1.2709051399,0.990366295,3.4595518224,-1.3446750097,0.363182512,-1.4755144254,-0.1389056395,1.8185825022,-0.2603380798,0.4847639085,-0.5878590036,0.1307926087,-4.9872635651,-0.4769963466
biasActivation=0,1,1
[BASIC:ACTIVATION]
"org.encog.engine.network.activation.ActivationSigmoid"
"org.encog.engine.network.activation.ActivationSigmoid"
"org.encog.engine.network.activation.ActivationLinear"
