encog,BasicNetwork,java,3.2.0,1,1433595909666
[BASIC]
[BASIC:PARAMS]
[BASIC:NETWORK]
beginTraining=0
connectionLimit=0
contextTargetOffset=0,0,0
contextTargetSize=0,0,0
endTraining=2
hasContext=f
inputCount=13
layerCounts=2,10,14
layerFeedCounts=2,9,13
layerContextCount=0,0,0
layerIndex=0,2,12
output=0.4478905232,0.8902190776,0.1647263704,0,0,0.5820558731,0.0054952451,0.9995877684,0.0016062971,0.0011331654,0.1084174206,1,0,0,1,1,0,0,1,0,0,0,1,0,1,1
outputCount=2
weightIndex=0,20,146
weights=2.8729847118,0.6544906197,2.2804225133,-0.3541129676,2.6582812843,0.9671088288,2.029400838,0.8070373741,-3.2219189691,-1.1125205772,-2.4241640851,-0.8947069689,-2.8248349342,2.0485386228,-1.6098459122,0.3186979601,-5.2931118544,1.4216676639,-0.248234376,1.0240248076,-0.2733257209,-0.4424822273,-1.3894305177,-3.1456839863,-37.2923162402,-0.5061172143,1.5162505016,0.1407092458,44.0126059629,-44.2566703995,0.9309717068,-0.0868597895,0.5616609153,-0.097242255,1.8350105147,-1.9477803057,1.8016995132,-29.7380670831,7.2381804093,0.0988758316,-0.8090496055,-0.3928243083,-3.2433028234,-35.5687019963,-0.2867687657,-0.7964763552,-1.4960022761,0.0589502026,-4.9892202034,-2.2202834853,-37.7248091992,6.205261786,-2.8421873309,-0.7465762477,-0.4044009526,0.9845650583,-8.9126882903,-33.0804573134,0.4081796197,-0.158344579,-2.061049241,0.2959045385,0.4891126031,1.8155092086,2.2105849282,1.5186775985,6.7711433772,-0.9324626415,-0.4151722282,0.9675294328,-6.4373704665,-33.8950515384,-1.2131862883,-0.837241871,-0.7954965815,-0.9741887399,1.0078447007,2.787540856,4.0964943954,-6.6801605003,-6.4868570429,-0.2922548492,0.8838703737,0.6202190075,-41.9573286431,5.8503941312,-1.1945710836,-6.6068668745,-1.2345033478,-1.0694915323,-4.7511453587,-4.1840406447,5.0413468286,0.4745828402,-35.500600738,0.3314024451,4.1199239039,-0.3883786382,-0.5989055826,-7.9177642815,0.1650118046,-36.4006228938,-1.8101031308,-0.1972494503,1.2854652671,0.9736200719,-0.8771522158,1.2011083135,4.2753510156,0.0078679251,-0.4204134514,-0.2057598092,-33.6117636362,3.0123458814,-1.3077706937,-31.5604236726,-2.368887892,-2.6591001347,-0.0673625294,-0.7865925022,-6.7184296307,-4.575000713,0.1889439415,-0.9604713428,1.1622037032,-0.4287247065,9.3306348397,35.5131346752,1.3650798427,-0.952500544,1.4676119441,0.5169283594,0.1618923753,0.614769797,-0.7880931177,-2.4980368572,-3.5258020931,0.8528796355,-0.030077772,0.3161530852,-0.0528889947,0.0884287818,-0.2216504562,0.2760036423,1.3308291436,0.1000197794
biasActivation=0,1,1
[BASIC:ACTIVATION]
"org.encog.engine.network.activation.ActivationSigmoid"
"org.encog.engine.network.activation.ActivationSigmoid"
"org.encog.engine.network.activation.ActivationLinear"
