encog,BasicNetwork,java,3.2.0,1,1433595895514
[BASIC]
[BASIC:PARAMS]
[BASIC:NETWORK]
beginTraining=0
connectionLimit=0
contextTargetOffset=0,0,0
contextTargetSize=0,0,0
endTraining=2
hasContext=f
inputCount=9
layerCounts=6,4,10
layerFeedCounts=6,3,9
layerContextCount=0,0,0
layerIndex=0,6,10
output=0.4372430391,0.5030241996,0.949536951,0.4779534828,0.4864839381,0.5076852948,0,1,0.9471291867,1,0,0,0,1,0,0,1,0,1,1
outputCount=6
weightIndex=0,24,54
weights=28.8044932873,0.2245448202,3.3807729015,-3.678932164,6.1455364622,0.4521814522,1.9012517701,-2.240815549,-3.029216949,8.673277997,-8.7088706682,2.5098806755,-15.0203925316,-3.1784075143,-0.1943523251,3.2742409882,0.2034555689,0.3390442307,-0.3560860143,-0.0558621957,-0.0637030884,1.4913511743,-1.8707368844,0.3112219301,0.1643583829,-2.8924236272,-2.1975703423,-1.2597408236,3.7936798403,0.6611881428,-0.6972191883,-0.7798219257,-34.242355894,-1.5176048434,1.7525389538,-0.0343534777,2.1041078585,1.6884943144,-60.2433239254,0.9231194919,-0.8766664388,0.4982337578,30.1381201363,-1.8630369797,0.2349550896,4.3047968664,5.2269574169,0.2288986984,-5.4752555742,-0.2482875276,-0.6675688046,0.9169006035,2.8617743419,0.462479812
biasActivation=0,1,1
[BASIC:ACTIVATION]
"org.encog.engine.network.activation.ActivationSigmoid"
"org.encog.engine.network.activation.ActivationSigmoid"
"org.encog.engine.network.activation.ActivationLinear"
