encog,BasicNetwork,java,3.2.0,1,1433600422667
[BASIC]
[BASIC:PARAMS]
[BASIC:NETWORK]
beginTraining=0
connectionLimit=0
contextTargetOffset=0,0,0
contextTargetSize=0,0,0
endTraining=2
hasContext=f
inputCount=9
layerCounts=8,11,10
layerFeedCounts=8,10,9
layerContextCount=0,0,0
layerIndex=0,8,19
output=0.4244876448,0.335469578,0.5080554134,0.8337402626,0.1193315672,0.4298707588,0.3198458363,0.1841334127,0.0604806493,0.2788389772,0,0.212332975,0,0.966898062,0.958472511,0.0013362194,0.000000124,0.4119128566,1,0,1,1,1,0,0,1,0,1,1
outputCount=8
weightIndex=0,88,188
weights=-0.2703374379,-1.319835917,12.7564910115,0.2171093036,2.0332562712,0.9033440981,-0.484538345,-1.9412803882,0.1809490728,-0.2339689045,-0.2761615997,2.5986913844,-0.8227924922,-18.3115944077,0.887954342,1.2940620692,1.2972983393,-0.1368335202,0.4039948483,1.0765780623,0.7255061606,-2.2224246525,5.1045651697,-1.8861931049,-7.9199397673,2.0636127995,3.071040701,-0.7118798242,2.8989953563,-0.6316114429,-2.1882824988,-4.4501196053,-0.445118278,-2.9425751261,-3.3756672324,0.8710658269,-3.9323691754,2.5697392521,-0.4686962229,0.7694443811,-0.4871008459,2.8399504657,5.8856302801,0.8585526898,-2.7503549899,-0.3674415192,0.0158491197,0.9790784704,-1.2569121686,-0.6323625342,-1.3835913953,1.3082179702,2.2822755881,0.9601242438,-0.3975371173,-1.2510593916,-1.7602384213,0.6141983282,0.1006909749,0.9950451207,0.6696038052,-0.2316969017,-0.0623910736,-0.0043225455,-0.1201267959,-0.1130688904,-0.5104053719,-0.782743017,-0.4991939206,0.6501043252,1.0841627976,0.4183732993,-0.5871852915,-0.833095689,0.7071095297,0.1102041981,-0.529394827,0.3117144233,-2.1617494155,1.0827329964,1.3527796672,0.1247853319,-0.2720332419,-0.4142044043,0.5818347687,0.2844958854,-0.5925003632,-0.288589735,-1.0973799283,-1.2056308865,-1.2811596891,-2.0560548577,-0.6038933149,0.3314024451,-0.2238857418,-0.4287247065,1.2498114453,0.7738747825,0.8121604023,-1.9914739391,-0.2520743487,-2.0957193888,0.5947978845,0.0078679251,0.2169992954,0.3161530852,3.8155594935,-0.6435190848,1.0976278528,0.1739337356,-34.144566173,-7.0594695282,0.8136436622,-0.9604713428,-2.2246503409,0.8959689839,5.0628125634,-1.2326601349,2.3861892685,1.342211708,3.1091820429,-3.4180166652,0.7865599212,0.8528796355,0.0452956802,0.246177872,-1.4609958127,-0.9285967173,-0.0158720864,-29.8653618852,-0.0705028019,-1.1927240069,-0.3375394115,-0.5630758334,0.5230011517,0.4153577814,-30.8524134836,1.1710593922,0.0684791314,5.7849951769,1.7760477673,-5.2403090191,-0.5061172143,-0.3453659879,0.1651562232,-0.4174259639,0.9024270256,-0.0138159308,-1.6663596403,3.1011794344,-1.2132371103,-0.908938845,0.0988758316,-0.9624976939,0.853859401,-0.9633201281,0.7383311385,0.5677912715,1.5530973431,-5.9282759912,-0.1896576153,-2.6047786962,-0.7465762477,-0.5535614517,0.6167032752,0.7667024689,0.7226479146,0.7667872427,0.7292945331,24.7361181906,-28.0498736576,2.1125890449,-0.9324626415,0.8448571767,-0.2184799005,0.3766036591,-14.4144831226,-0.0692125651,-0.8226547219,-0.9127137769,2.2685445082,-0.7068972069,-0.2922548492,-0.1051390132,-0.2994811621,0.7829056852,-0.6251119804,-0.0804037082
biasActivation=0,1,1
[BASIC:ACTIVATION]
"org.encog.engine.network.activation.ActivationSigmoid"
"org.encog.engine.network.activation.ActivationSigmoid"
"org.encog.engine.network.activation.ActivationLinear"
