encog,BasicNetwork,java,3.2.0,1,1433595902539
[BASIC]
[BASIC:PARAMS]
[BASIC:NETWORK]
beginTraining=0
connectionLimit=0
contextTargetOffset=0,0,0
contextTargetSize=0,0,0
endTraining=2
hasContext=f
inputCount=13
layerCounts=2,10,14
layerFeedCounts=2,9,13
layerContextCount=0,0,0
layerIndex=0,2,12
output=0.295845444,0.4368137785,0,0.7617652282,0.2281186716,0.0207277609,0,0,0,0,1,1,0,0,1,0,1,0,1,0,1,1,1,0,1,1
outputCount=2
weightIndex=0,20,146
weights=0.6561301601,0.5560688349,0.6996140308,-1.4144792888,-0.6359102013,0.1013187624,-0.420333532,1.5277405516,-0.5738726379,-0.8471580022,0.436742744,-0.4575522144,-0.2763321065,4.7577244769,-5.7099445387,1.3251572785,1.2813055033,-0.3748960049,-0.6411931817,0.7000567143,0.1294584388,-1.6090062015,-0.3191259797,-1.2342306767,-3.7293969597,-0.5061172143,0.5432559505,0.1407092458,5.1176197638,-33.8191347874,0.6960016019,-0.6539237407,-2.5006774145,-0.3322123598,4.5055781421,-0.6074167598,0.4947392106,-1.0509111927,1.0244710916,0.0988758316,-0.3240447874,-0.3928243083,1.1373277169,0.126571218,-0.3974115947,-2.0669646788,-0.8475784432,-0.0516926265,0.3526355998,34.0498763825,0.9314615665,2.0166189841,4.6208991341,-0.7465762477,-0.8997321322,0.9845650583,-4.5429791046,-1.0414920829,0.340500581,9.0061762698,-0.8558482972,0.2282254998,0.3225613306,0.0876964221,0.5827064393,0.3930339741,-1.8366633316,-0.9324626415,-0.7389653068,0.9675294328,5.0554577746,-2.6640433682,-1.4374761741,-33.5711996251,-1.6178731803,-1.1984786257,-1.0005650973,-1.2721116067,-0.440544676,-0.8314033058,-32.8050787914,-0.2922548492,0.6278472951,0.6202190075,-1.5389803217,2.6754313883,-0.0295150505,-0.6655630775,-2.2294951305,0.0955645007,0.4886140476,-0.4964160408,0.8110951844,-1.9822407499,-4.5339952101,0.3314024451,-0.2141751308,-0.3883786382,-67.384789103,40.4848617321,0.7050959618,35.0394172569,-3.8834883111,0.342834707,-0.2815159845,0.7487304163,-2.3128554545,-3.6851135564,-8.5458309801,0.0078679251,0.0069230992,-0.2057598092,13.2495774139,-43.5429860698,0.6312826246,-9.9686683155,2.8615352668,-0.7200468164,-2.5635688379,0.4135919385,-1.6887489212,-2.7545813945,-35.1097831285,-0.9604713428,2.3366931788,-0.4287247065,64.2529834997,-66.8436136846,1.083396219,0.2837840943,-1.0176064472,0.2352447357,0.930017584,4.2372836449,37.1248065125,14.4325018459,79.0193077919,0.8528796355,-0.8469904325,0.3161530852,-8.2663802148,79.2796785771,0.2665088675,33.7456128937,-44.3482038438,0.5881791032
biasActivation=0,1,1
[BASIC:ACTIVATION]
"org.encog.engine.network.activation.ActivationSigmoid"
"org.encog.engine.network.activation.ActivationSigmoid"
"org.encog.engine.network.activation.ActivationLinear"
